digraph Tree {
node [shape=box, style="filled, rounded", color="black", fontname=helvetica] ;
edge [fontname=helvetica] ;
0 [label="thal <= 4.945\nentropy = 1.827\nsamples = 202\nvalue = [111, 35, 25, 23, 8]", fillcolor="#e5813974"] ;
1 [label="sex <= 0.298\nentropy = 0.996\nsamples = 109\nvalue = [87, 15, 4, 2, 1]", fillcolor="#e58139c3"] ;
0 -> 1 [labeldistance=2.5, labelangle=45, headlabel="True"] ;
2 [label="fbs <= 0.287\nentropy = 0.454\nsamples = 52\nvalue = [48, 3, 0, 1, 0]", fillcolor="#e58139ea"] ;
1 -> 2 ;
3 [label="thalach <= 154.535\nentropy = 0.348\nsamples = 46\nvalue = [43, 3, 0, 0, 0]", fillcolor="#e58139ed"] ;
2 -> 3 ;
4 [label="entropy = 0.0\nsamples = 20\nvalue = [20, 0, 0, 0, 0]", fillcolor="#e58139ff"] ;
3 -> 4 ;
5 [label="exang <= 0.119\nentropy = 0.516\nsamples = 26\nvalue = [23, 3, 0, 0, 0]", fillcolor="#e58139de"] ;
3 -> 5 ;
6 [label="cp <= 3.176\nentropy = 0.414\nsamples = 24\nvalue = [22, 2, 0, 0, 0]", fillcolor="#e58139e8"] ;
5 -> 6 ;
7 [label="entropy = 0.0\nsamples = 18\nvalue = [18, 0, 0, 0, 0]", fillcolor="#e58139ff"] ;
6 -> 7 ;
8 [label="age <= 61.54\nentropy = 0.918\nsamples = 6\nvalue = [4, 2, 0, 0, 0]", fillcolor="#e581397f"] ;
6 -> 8 ;
9 [label="age <= 56.759\nentropy = 1.0\nsamples = 4\nvalue = [2, 2, 0, 0, 0]", fillcolor="#e5813900"] ;
8 -> 9 ;
10 [label="entropy = 0.0\nsamples = 1\nvalue = [1, 0, 0, 0, 0]", fillcolor="#e58139ff"] ;
9 -> 10 ;
11 [label="age <= 58.613\nentropy = 0.918\nsamples = 3\nvalue = [1, 2, 0, 0, 0]", fillcolor="#7be5397f"] ;
9 -> 11 ;
12 [label="entropy = 0.0\nsamples = 1\nvalue = [1, 0, 0, 0, 0]", fillcolor="#e58139ff"] ;
11 -> 12 ;
13 [label="entropy = 0.0\nsamples = 2\nvalue = [0, 2, 0, 0, 0]", fillcolor="#7be539ff"] ;
11 -> 13 ;
14 [label="entropy = 0.0\nsamples = 2\nvalue = [2, 0, 0, 0, 0]", fillcolor="#e58139ff"] ;
8 -> 14 ;
15 [label="ca <= 1.671\nentropy = 1.0\nsamples = 2\nvalue = [1, 1, 0, 0, 0]", fillcolor="#e5813900"] ;
5 -> 15 ;
16 [label="entropy = 0.0\nsamples = 1\nvalue = [1, 0, 0, 0, 0]", fillcolor="#e58139ff"] ;
15 -> 16 ;
17 [label="entropy = 0.0\nsamples = 1\nvalue = [0, 1, 0, 0, 0]", fillcolor="#7be539ff"] ;
15 -> 17 ;
18 [label="ca <= 0.622\nentropy = 0.65\nsamples = 6\nvalue = [5, 0, 0, 1, 0]", fillcolor="#e58139cc"] ;
2 -> 18 ;
19 [label="entropy = 0.0\nsamples = 3\nvalue = [3, 0, 0, 0, 0]", fillcolor="#e58139ff"] ;
18 -> 19 ;
20 [label="thalach <= 153.063\nentropy = 0.918\nsamples = 3\nvalue = [2, 0, 0, 1, 0]", fillcolor="#e581397f"] ;
18 -> 20 ;
21 [label="entropy = 0.0\nsamples = 1\nvalue = [0, 0, 0, 1, 0]", fillcolor="#3c39e5ff"] ;
20 -> 21 ;
22 [label="entropy = 0.0\nsamples = 2\nvalue = [2, 0, 0, 0, 0]", fillcolor="#e58139ff"] ;
20 -> 22 ;
23 [label="ca <= 0.681\nentropy = 1.321\nsamples = 57\nvalue = [39, 12, 4, 1, 1]", fillcolor="#e5813999"] ;
1 -> 23 ;
24 [label="oldpeak <= 1.661\nentropy = 0.732\nsamples = 38\nvalue = [32, 5, 1, 0, 0]", fillcolor="#e58139d1"] ;
23 -> 24 ;
25 [label="thalach <= 101.147\nentropy = 0.535\nsamples = 32\nvalue = [29, 2, 1, 0, 0]", fillcolor="#e58139e6"] ;
24 -> 25 ;
26 [label="entropy = 0.0\nsamples = 1\nvalue = [0, 0, 1, 0, 0]", fillcolor="#39e5c5ff"] ;
25 -> 26 ;
27 [label="thalach <= 143.554\nentropy = 0.345\nsamples = 31\nvalue = [29, 2, 0, 0, 0]", fillcolor="#e58139ed"] ;
25 -> 27 ;
28 [label="restecg <= 1.066\nentropy = 0.811\nsamples = 4\nvalue = [3, 1, 0, 0, 0]", fillcolor="#e58139aa"] ;
27 -> 28 ;
29 [label="entropy = 0.0\nsamples = 3\nvalue = [3, 0, 0, 0, 0]", fillcolor="#e58139ff"] ;
28 -> 29 ;
30 [label="entropy = 0.0\nsamples = 1\nvalue = [0, 1, 0, 0, 0]", fillcolor="#7be539ff"] ;
28 -> 30 ;
31 [label="trestbps <= 120.947\nentropy = 0.229\nsamples = 27\nvalue = [26, 1, 0, 0, 0]", fillcolor="#e58139f5"] ;
27 -> 31 ;
32 [label="age <= 44.916\nentropy = 0.544\nsamples = 8\nvalue = [7, 1, 0, 0, 0]", fillcolor="#e58139db"] ;
31 -> 32 ;
33 [label="entropy = 0.0\nsamples = 6\nvalue = [6, 0, 0, 0, 0]", fillcolor="#e58139ff"] ;
32 -> 33 ;
34 [label="thalach <= 184.668\nentropy = 1.0\nsamples = 2\nvalue = [1, 1, 0, 0, 0]", fillcolor="#e5813900"] ;
32 -> 34 ;
35 [label="entropy = 0.0\nsamples = 1\nvalue = [0, 1, 0, 0, 0]", fillcolor="#7be539ff"] ;
34 -> 35 ;
36 [label="entropy = 0.0\nsamples = 1\nvalue = [1, 0, 0, 0, 0]", fillcolor="#e58139ff"] ;
34 -> 36 ;
37 [label="entropy = 0.0\nsamples = 19\nvalue = [19, 0, 0, 0, 0]", fillcolor="#e58139ff"] ;
31 -> 37 ;
38 [label="exang <= 0.615\nentropy = 1.0\nsamples = 6\nvalue = [3, 3, 0, 0, 0]", fillcolor="#e5813900"] ;
24 -> 38 ;
39 [label="slope <= 2.945\nentropy = 0.811\nsamples = 4\nvalue = [1, 3, 0, 0, 0]", fillcolor="#7be539aa"] ;
38 -> 39 ;
40 [label="entropy = 0.0\nsamples = 3\nvalue = [0, 3, 0, 0, 0]", fillcolor="#7be539ff"] ;
39 -> 40 ;
41 [label="entropy = 0.0\nsamples = 1\nvalue = [1, 0, 0, 0, 0]", fillcolor="#e58139ff"] ;
39 -> 41 ;
42 [label="entropy = 0.0\nsamples = 2\nvalue = [2, 0, 0, 0, 0]", fillcolor="#e58139ff"] ;
38 -> 42 ;
43 [label="cp <= 3.316\nentropy = 1.929\nsamples = 19\nvalue = [7, 7, 3, 1, 1]", fillcolor="#e5813900"] ;
23 -> 43 ;
44 [label="cp <= 2.729\nentropy = 1.241\nsamples = 11\nvalue = [7, 3, 1, 0, 0]", fillcolor="#e5813980"] ;
43 -> 44 ;
45 [label="oldpeak <= 2.044\nentropy = 1.449\nsamples = 7\nvalue = [3, 3, 1, 0, 0]", fillcolor="#e5813900"] ;
44 -> 45 ;
46 [label="restecg <= 1.532\nentropy = 1.0\nsamples = 6\nvalue = [3, 3, 0, 0, 0]", fillcolor="#e5813900"] ;
45 -> 46 ;
47 [label="entropy = 0.0\nsamples = 1\nvalue = [0, 1, 0, 0, 0]", fillcolor="#7be539ff"] ;
46 -> 47 ;
48 [label="thalach <= 141.104\nentropy = 0.971\nsamples = 5\nvalue = [3, 2, 0, 0, 0]", fillcolor="#e5813955"] ;
46 -> 48 ;
49 [label="entropy = 0.0\nsamples = 2\nvalue = [2, 0, 0, 0, 0]", fillcolor="#e58139ff"] ;
48 -> 49 ;
50 [label="ca <= 1.572\nentropy = 0.918\nsamples = 3\nvalue = [1, 2, 0, 0, 0]", fillcolor="#7be5397f"] ;
48 -> 50 ;
51 [label="entropy = 0.0\nsamples = 2\nvalue = [0, 2, 0, 0, 0]", fillcolor="#7be539ff"] ;
50 -> 51 ;
52 [label="entropy = 0.0\nsamples = 1\nvalue = [1, 0, 0, 0, 0]", fillcolor="#e58139ff"] ;
50 -> 52 ;
53 [label="entropy = 0.0\nsamples = 1\nvalue = [0, 0, 1, 0, 0]", fillcolor="#39e5c5ff"] ;
45 -> 53 ;
54 [label="entropy = 0.0\nsamples = 4\nvalue = [4, 0, 0, 0, 0]", fillcolor="#e58139ff"] ;
44 -> 54 ;
55 [label="slope <= 1.163\nentropy = 1.75\nsamples = 8\nvalue = [0, 4, 2, 1, 1]", fillcolor="#7be53955"] ;
43 -> 55 ;
56 [label="trestbps <= 111.788\nentropy = 0.918\nsamples = 3\nvalue = [0, 1, 2, 0, 0]", fillcolor="#39e5c57f"] ;
55 -> 56 ;
57 [label="entropy = 0.0\nsamples = 1\nvalue = [0, 1, 0, 0, 0]", fillcolor="#7be539ff"] ;
56 -> 57 ;
58 [label="entropy = 0.0\nsamples = 2\nvalue = [0, 0, 2, 0, 0]", fillcolor="#39e5c5ff"] ;
56 -> 58 ;
59 [label="chol <= 237.338\nentropy = 1.371\nsamples = 5\nvalue = [0, 3, 0, 1, 1]", fillcolor="#7be5397f"] ;
55 -> 59 ;
60 [label="thalach <= 114.777\nentropy = 1.0\nsamples = 2\nvalue = [0, 0, 0, 1, 1]", fillcolor="#3c39e500"] ;
59 -> 60 ;
61 [label="entropy = 0.0\nsamples = 1\nvalue = [0, 0, 0, 1, 0]", fillcolor="#3c39e5ff"] ;
60 -> 61 ;
62 [label="entropy = 0.0\nsamples = 1\nvalue = [0, 0, 0, 0, 1]", fillcolor="#e539c0ff"] ;
60 -> 62 ;
63 [label="entropy = 0.0\nsamples = 3\nvalue = [0, 3, 0, 0, 0]", fillcolor="#7be539ff"] ;
59 -> 63 ;
64 [label="ca <= 0.518\nentropy = 2.232\nsamples = 93\nvalue = [24, 20, 21, 21, 7]", fillcolor="#e581390b"] ;
0 -> 64 [labeldistance=2.5, labelangle=-45, headlabel="False"] ;
65 [label="exang <= 0.53\nentropy = 1.939\nsamples = 46\nvalue = [21, 12, 4, 7, 2]", fillcolor="#e5813944"] ;
64 -> 65 ;
66 [label="age <= 50.006\nentropy = 1.195\nsamples = 26\nvalue = [17, 7, 0, 2, 0]", fillcolor="#e5813986"] ;
65 -> 66 ;
67 [label="oldpeak <= 0.452\nentropy = 1.483\nsamples = 12\nvalue = [5, 5, 0, 2, 0]", fillcolor="#e5813900"] ;
66 -> 67 ;
68 [label="age <= 42.96\nentropy = 0.918\nsamples = 6\nvalue = [4, 2, 0, 0, 0]", fillcolor="#e581397f"] ;
67 -> 68 ;
69 [label="slope <= 1.389\nentropy = 0.918\nsamples = 3\nvalue = [1, 2, 0, 0, 0]", fillcolor="#7be5397f"] ;
68 -> 69 ;
70 [label="entropy = 0.0\nsamples = 2\nvalue = [0, 2, 0, 0, 0]", fillcolor="#7be539ff"] ;
69 -> 70 ;
71 [label="entropy = 0.0\nsamples = 1\nvalue = [1, 0, 0, 0, 0]", fillcolor="#e58139ff"] ;
69 -> 71 ;
72 [label="entropy = 0.0\nsamples = 3\nvalue = [3, 0, 0, 0, 0]", fillcolor="#e58139ff"] ;
68 -> 72 ;
73 [label="thalach <= 169.182\nentropy = 1.459\nsamples = 6\nvalue = [1, 3, 0, 2, 0]", fillcolor="#7be53940"] ;
67 -> 73 ;
74 [label="cp <= 3.593\nentropy = 0.971\nsamples = 5\nvalue = [0, 3, 0, 2, 0]", fillcolor="#7be53955"] ;
73 -> 74 ;
75 [label="entropy = 0.0\nsamples = 2\nvalue = [0, 2, 0, 0, 0]", fillcolor="#7be539ff"] ;
74 -> 75 ;
76 [label="slope <= 1.927\nentropy = 0.918\nsamples = 3\nvalue = [0, 1, 0, 2, 0]", fillcolor="#3c39e57f"] ;
74 -> 76 ;
77 [label="entropy = 0.0\nsamples = 1\nvalue = [0, 1, 0, 0, 0]", fillcolor="#7be539ff"] ;
76 -> 77 ;
78 [label="entropy = 0.0\nsamples = 2\nvalue = [0, 0, 0, 2, 0]", fillcolor="#3c39e5ff"] ;
76 -> 78 ;
79 [label="entropy = 0.0\nsamples = 1\nvalue = [1, 0, 0, 0, 0]", fillcolor="#e58139ff"] ;
73 -> 79 ;
80 [label="thalach <= 165.786\nentropy = 0.592\nsamples = 14\nvalue = [12, 2, 0, 0, 0]", fillcolor="#e58139d4"] ;
66 -> 80 ;
81 [label="age <= 65.856\nentropy = 0.65\nsamples = 12\nvalue = [10, 2, 0, 0, 0]", fillcolor="#e58139cc"] ;
80 -> 81 ;
82 [label="restecg <= 1.165\nentropy = 0.469\nsamples = 10\nvalue = [9, 1, 0, 0, 0]", fillcolor="#e58139e3"] ;
81 -> 82 ;
83 [label="thalach <= 142.857\nentropy = 0.811\nsamples = 4\nvalue = [3, 1, 0, 0, 0]", fillcolor="#e58139aa"] ;
82 -> 83 ;
84 [label="age <= 62.112\nentropy = 0.918\nsamples = 3\nvalue = [2, 1, 0, 0, 0]", fillcolor="#e581397f"] ;
83 -> 84 ;
85 [label="entropy = 0.0\nsamples = 1\nvalue = [0, 1, 0, 0, 0]", fillcolor="#7be539ff"] ;
84 -> 85 ;
86 [label="entropy = 0.0\nsamples = 2\nvalue = [2, 0, 0, 0, 0]", fillcolor="#e58139ff"] ;
84 -> 86 ;
87 [label="entropy = 0.0\nsamples = 1\nvalue = [1, 0, 0, 0, 0]", fillcolor="#e58139ff"] ;
83 -> 87 ;
88 [label="entropy = 0.0\nsamples = 6\nvalue = [6, 0, 0, 0, 0]", fillcolor="#e58139ff"] ;
82 -> 88 ;
89 [label="thalach <= 152.033\nentropy = 1.0\nsamples = 2\nvalue = [1, 1, 0, 0, 0]", fillcolor="#e5813900"] ;
81 -> 89 ;
90 [label="entropy = 0.0\nsamples = 1\nvalue = [0, 1, 0, 0, 0]", fillcolor="#7be539ff"] ;
89 -> 90 ;
91 [label="entropy = 0.0\nsamples = 1\nvalue = [1, 0, 0, 0, 0]", fillcolor="#e58139ff"] ;
89 -> 91 ;
92 [label="entropy = 0.0\nsamples = 2\nvalue = [2, 0, 0, 0, 0]", fillcolor="#e58139ff"] ;
80 -> 92 ;
93 [label="chol <= 279.166\nentropy = 2.261\nsamples = 20\nvalue = [4, 5, 4, 5, 2]", fillcolor="#7be53900"] ;
65 -> 93 ;
94 [label="sex <= 0.231\nentropy = 1.784\nsamples = 12\nvalue = [4, 1, 0, 5, 2]", fillcolor="#3c39e520"] ;
93 -> 94 ;
95 [label="entropy = 0.0\nsamples = 1\nvalue = [0, 1, 0, 0, 0]", fillcolor="#7be539ff"] ;
94 -> 95 ;
96 [label="restecg <= 0.993\nentropy = 1.495\nsamples = 11\nvalue = [4, 0, 0, 5, 2]", fillcolor="#3c39e524"] ;
94 -> 96 ;
97 [label="slope <= 2.665\nentropy = 1.522\nsamples = 5\nvalue = [2, 0, 0, 1, 2]", fillcolor="#e5813900"] ;
96 -> 97 ;
98 [label="chol <= 223.192\nentropy = 0.918\nsamples = 3\nvalue = [2, 0, 0, 0, 1]", fillcolor="#e581397f"] ;
97 -> 98 ;
99 [label="entropy = 0.0\nsamples = 2\nvalue = [2, 0, 0, 0, 0]", fillcolor="#e58139ff"] ;
98 -> 99 ;
100 [label="entropy = 0.0\nsamples = 1\nvalue = [0, 0, 0, 0, 1]", fillcolor="#e539c0ff"] ;
98 -> 100 ;
101 [label="thalach <= 124.322\nentropy = 1.0\nsamples = 2\nvalue = [0, 0, 0, 1, 1]", fillcolor="#3c39e500"] ;
97 -> 101 ;
102 [label="entropy = 0.0\nsamples = 1\nvalue = [0, 0, 0, 1, 0]", fillcolor="#3c39e5ff"] ;
101 -> 102 ;
103 [label="entropy = 0.0\nsamples = 1\nvalue = [0, 0, 0, 0, 1]", fillcolor="#e539c0ff"] ;
101 -> 103 ;
104 [label="thalach <= 151.274\nentropy = 0.918\nsamples = 6\nvalue = [2, 0, 0, 4, 0]", fillcolor="#3c39e57f"] ;
96 -> 104 ;
105 [label="slope <= 1.575\nentropy = 0.722\nsamples = 5\nvalue = [1, 0, 0, 4, 0]", fillcolor="#3c39e5bf"] ;
104 -> 105 ;
106 [label="trestbps <= 149.386\nentropy = 1.0\nsamples = 2\nvalue = [1, 0, 0, 1, 0]", fillcolor="#e5813900"] ;
105 -> 106 ;
107 [label="entropy = 0.0\nsamples = 1\nvalue = [1, 0, 0, 0, 0]", fillcolor="#e58139ff"] ;
106 -> 107 ;
108 [label="entropy = 0.0\nsamples = 1\nvalue = [0, 0, 0, 1, 0]", fillcolor="#3c39e5ff"] ;
106 -> 108 ;
109 [label="entropy = 0.0\nsamples = 3\nvalue = [0, 0, 0, 3, 0]", fillcolor="#3c39e5ff"] ;
105 -> 109 ;
110 [label="entropy = 0.0\nsamples = 1\nvalue = [1, 0, 0, 0, 0]", fillcolor="#e58139ff"] ;
104 -> 110 ;
111 [label="chol <= 312.942\nentropy = 1.0\nsamples = 8\nvalue = [0, 4, 4, 0, 0]", fillcolor="#7be53900"] ;
93 -> 111 ;
112 [label="fbs <= 0.977\nentropy = 0.722\nsamples = 5\nvalue = [0, 4, 1, 0, 0]", fillcolor="#7be539bf"] ;
111 -> 112 ;
113 [label="entropy = 0.0\nsamples = 4\nvalue = [0, 4, 0, 0, 0]", fillcolor="#7be539ff"] ;
112 -> 113 ;
114 [label="entropy = 0.0\nsamples = 1\nvalue = [0, 0, 1, 0, 0]", fillcolor="#39e5c5ff"] ;
112 -> 114 ;
115 [label="entropy = 0.0\nsamples = 3\nvalue = [0, 0, 3, 0, 0]", fillcolor="#39e5c5ff"] ;
111 -> 115 ;
116 [label="restecg <= 0.624\nentropy = 2.083\nsamples = 47\nvalue = [3, 8, 17, 14, 5]", fillcolor="#39e5c517"] ;
64 -> 116 ;
117 [label="slope <= 1.104\nentropy = 1.825\nsamples = 19\nvalue = [3, 3, 9, 4, 0]", fillcolor="#39e5c555"] ;
116 -> 117 ;
118 [label="cp <= 3.474\nentropy = 0.971\nsamples = 5\nvalue = [3, 0, 2, 0, 0]", fillcolor="#e5813955"] ;
117 -> 118 ;
119 [label="entropy = 0.0\nsamples = 3\nvalue = [3, 0, 0, 0, 0]", fillcolor="#e58139ff"] ;
118 -> 119 ;
120 [label="entropy = 0.0\nsamples = 2\nvalue = [0, 0, 2, 0, 0]", fillcolor="#39e5c5ff"] ;
118 -> 120 ;
121 [label="thal <= 6.018\nentropy = 1.493\nsamples = 14\nvalue = [0, 3, 7, 4, 0]", fillcolor="#39e5c54c"] ;
117 -> 121 ;
122 [label="entropy = 0.0\nsamples = 2\nvalue = [0, 0, 2, 0, 0]", fillcolor="#39e5c5ff"] ;
121 -> 122 ;
123 [label="ca <= 2.272\nentropy = 1.555\nsamples = 12\nvalue = [0, 3, 5, 4, 0]", fillcolor="#39e5c520"] ;
121 -> 123 ;
124 [label="trestbps <= 159.368\nentropy = 1.485\nsamples = 10\nvalue = [0, 3, 5, 2, 0]", fillcolor="#39e5c549"] ;
123 -> 124 ;
125 [label="oldpeak <= 1.336\nentropy = 1.352\nsamples = 9\nvalue = [0, 3, 5, 1, 0]", fillcolor="#39e5c555"] ;
124 -> 125 ;
126 [label="trestbps <= 135.166\nentropy = 0.918\nsamples = 3\nvalue = [0, 2, 1, 0, 0]", fillcolor="#7be5397f"] ;
125 -> 126 ;
127 [label="entropy = 0.0\nsamples = 1\nvalue = [0, 0, 1, 0, 0]", fillcolor="#39e5c5ff"] ;
126 -> 127 ;
128 [label="entropy = 0.0\nsamples = 2\nvalue = [0, 2, 0, 0, 0]", fillcolor="#7be539ff"] ;
126 -> 128 ;
129 [label="ca <= 1.98\nentropy = 1.252\nsamples = 6\nvalue = [0, 1, 4, 1, 0]", fillcolor="#39e5c599"] ;
125 -> 129 ;
130 [label="oldpeak <= 1.626\nentropy = 0.918\nsamples = 3\nvalue = [0, 0, 2, 1, 0]", fillcolor="#39e5c57f"] ;
129 -> 130 ;
131 [label="entropy = 0.0\nsamples = 1\nvalue = [0, 0, 1, 0, 0]", fillcolor="#39e5c5ff"] ;
130 -> 131 ;
132 [label="chol <= 268.178\nentropy = 1.0\nsamples = 2\nvalue = [0, 0, 1, 1, 0]", fillcolor="#39e5c500"] ;
130 -> 132 ;
133 [label="entropy = 0.0\nsamples = 1\nvalue = [0, 0, 0, 1, 0]", fillcolor="#3c39e5ff"] ;
132 -> 133 ;
134 [label="entropy = 0.0\nsamples = 1\nvalue = [0, 0, 1, 0, 0]", fillcolor="#39e5c5ff"] ;
132 -> 134 ;
135 [label="thalach <= 115.958\nentropy = 0.918\nsamples = 3\nvalue = [0, 1, 2, 0, 0]", fillcolor="#39e5c57f"] ;
129 -> 135 ;
136 [label="entropy = 0.0\nsamples = 1\nvalue = [0, 1, 0, 0, 0]", fillcolor="#7be539ff"] ;
135 -> 136 ;
137 [label="entropy = 0.0\nsamples = 2\nvalue = [0, 0, 2, 0, 0]", fillcolor="#39e5c5ff"] ;
135 -> 137 ;
138 [label="entropy = 0.0\nsamples = 1\nvalue = [0, 0, 0, 1, 0]", fillcolor="#3c39e5ff"] ;
124 -> 138 ;
139 [label="entropy = 0.0\nsamples = 2\nvalue = [0, 0, 0, 2, 0]", fillcolor="#3c39e5ff"] ;
123 -> 139 ;
140 [label="thalach <= 141.432\nentropy = 1.935\nsamples = 28\nvalue = [0, 5, 8, 10, 5]", fillcolor="#3c39e51a"] ;
116 -> 140 ;
141 [label="exang <= 0.053\nentropy = 1.782\nsamples = 15\nvalue = [0, 5, 1, 6, 3]", fillcolor="#3c39e51a"] ;
140 -> 141 ;
142 [label="oldpeak <= 2.774\nentropy = 1.522\nsamples = 5\nvalue = [0, 0, 1, 2, 2]", fillcolor="#3c39e500"] ;
141 -> 142 ;
143 [label="ca <= 2.323\nentropy = 1.0\nsamples = 4\nvalue = [0, 0, 0, 2, 2]", fillcolor="#3c39e500"] ;
142 -> 143 ;
144 [label="entropy = 0.0\nsamples = 2\nvalue = [0, 0, 0, 2, 0]", fillcolor="#3c39e5ff"] ;
143 -> 144 ;
145 [label="entropy = 0.0\nsamples = 2\nvalue = [0, 0, 0, 0, 2]", fillcolor="#e539c0ff"] ;
143 -> 145 ;
146 [label="entropy = 0.0\nsamples = 1\nvalue = [0, 0, 1, 0, 0]", fillcolor="#39e5c5ff"] ;
142 -> 146 ;
147 [label="sex <= 0.065\nentropy = 1.361\nsamples = 10\nvalue = [0, 5, 0, 4, 1]", fillcolor="#7be5392a"] ;
141 -> 147 ;
148 [label="entropy = 0.0\nsamples = 2\nvalue = [0, 0, 0, 2, 0]", fillcolor="#3c39e5ff"] ;
147 -> 148 ;
149 [label="chol <= 249.995\nentropy = 1.299\nsamples = 8\nvalue = [0, 5, 0, 2, 1]", fillcolor="#7be53980"] ;
147 -> 149 ;
150 [label="thal <= 6.243\nentropy = 0.811\nsamples = 4\nvalue = [0, 3, 0, 0, 1]", fillcolor="#7be539aa"] ;
149 -> 150 ;
151 [label="entropy = 0.0\nsamples = 1\nvalue = [0, 1, 0, 0, 0]", fillcolor="#7be539ff"] ;
150 -> 151 ;
152 [label="chol <= 209.541\nentropy = 0.918\nsamples = 3\nvalue = [0, 2, 0, 0, 1]", fillcolor="#7be5397f"] ;
150 -> 152 ;
153 [label="entropy = 0.0\nsamples = 1\nvalue = [0, 0, 0, 0, 1]", fillcolor="#e539c0ff"] ;
152 -> 153 ;
154 [label="entropy = 0.0\nsamples = 2\nvalue = [0, 2, 0, 0, 0]", fillcolor="#7be539ff"] ;
152 -> 154 ;
155 [label="trestbps <= 125.056\nentropy = 1.0\nsamples = 4\nvalue = [0, 2, 0, 2, 0]", fillcolor="#7be53900"] ;
149 -> 155 ;
156 [label="entropy = 0.0\nsamples = 2\nvalue = [0, 2, 0, 0, 0]", fillcolor="#7be539ff"] ;
155 -> 156 ;
157 [label="entropy = 0.0\nsamples = 2\nvalue = [0, 0, 0, 2, 0]", fillcolor="#3c39e5ff"] ;
155 -> 157 ;
158 [label="exang <= 0.327\nentropy = 1.42\nsamples = 13\nvalue = [0, 0, 7, 4, 2]", fillcolor="#39e5c555"] ;
140 -> 158 ;
159 [label="oldpeak <= 2.484\nentropy = 1.557\nsamples = 7\nvalue = [0, 0, 2, 3, 2]", fillcolor="#3c39e533"] ;
158 -> 159 ;
160 [label="entropy = 0.0\nsamples = 2\nvalue = [0, 0, 2, 0, 0]", fillcolor="#39e5c5ff"] ;
159 -> 160 ;
161 [label="trestbps <= 116.43\nentropy = 0.971\nsamples = 5\nvalue = [0, 0, 0, 3, 2]", fillcolor="#3c39e555"] ;
159 -> 161 ;
162 [label="entropy = 0.0\nsamples = 1\nvalue = [0, 0, 0, 0, 1]", fillcolor="#e539c0ff"] ;
161 -> 162 ;
163 [label="chol <= 296.87\nentropy = 0.811\nsamples = 4\nvalue = [0, 0, 0, 3, 1]", fillcolor="#3c39e5aa"] ;
161 -> 163 ;
164 [label="entropy = 0.0\nsamples = 3\nvalue = [0, 0, 0, 3, 0]", fillcolor="#3c39e5ff"] ;
163 -> 164 ;
165 [label="entropy = 0.0\nsamples = 1\nvalue = [0, 0, 0, 0, 1]", fillcolor="#e539c0ff"] ;
163 -> 165 ;
166 [label="age <= 48.429\nentropy = 0.65\nsamples = 6\nvalue = [0, 0, 5, 1, 0]", fillcolor="#39e5c5cc"] ;
158 -> 166 ;
167 [label="entropy = 0.0\nsamples = 1\nvalue = [0, 0, 0, 1, 0]", fillcolor="#3c39e5ff"] ;
166 -> 167 ;
168 [label="entropy = 0.0\nsamples = 5\nvalue = [0, 0, 5, 0, 0]", fillcolor="#39e5c5ff"] ;
166 -> 168 ;
}