digraph Tree {
node [shape=box, style="filled, rounded", color="black", fontname=helvetica] ;
edge [fontname=helvetica] ;
0 [label="thal <= 6.121\nentropy = 1.841\nsamples = 242\nvalue = [133, 39, 31, 28, 11]", fillcolor="#e5813976"] ;
1 [label="exang <= 0.813\nentropy = 1.333\nsamples = 151\nvalue = [110, 18, 12, 7, 4]", fillcolor="#e58139b0"] ;
0 -> 1 [labeldistance=2.5, labelangle=45, headlabel="True"] ;
2 [label="ca <= 1.509\nentropy = 0.999\nsamples = 119\nvalue = [97, 12, 5, 3, 2]", fillcolor="#e58139cb"] ;
1 -> 2 ;
3 [label="ca <= 0.77\nentropy = 0.614\nsamples = 103\nvalue = [91, 9, 3, 0, 0]", fillcolor="#e58139de"] ;
2 -> 3 ;
4 [label="chol <= 229.814\nentropy = 0.372\nsamples = 83\nvalue = [78, 4, 1, 0, 0]", fillcolor="#e58139ef"] ;
3 -> 4 ;
5 [label="entropy = 0.0\nsamples = 37\nvalue = [37, 0, 0, 0, 0]", fillcolor="#e58139ff"] ;
4 -> 5 ;
6 [label="thalach <= 96.62\nentropy = 0.574\nsamples = 46\nvalue = [41, 4, 1, 0, 0]", fillcolor="#e58139e1"] ;
4 -> 6 ;
7 [label="entropy = 0.0\nsamples = 1\nvalue = [0, 0, 1, 0, 0]", fillcolor="#39e5c5ff"] ;
6 -> 7 ;
8 [label="cp <= 2.935\nentropy = 0.433\nsamples = 45\nvalue = [41, 4, 0, 0, 0]", fillcolor="#e58139e6"] ;
6 -> 8 ;
9 [label="entropy = 0.0\nsamples = 19\nvalue = [19, 0, 0, 0, 0]", fillcolor="#e58139ff"] ;
8 -> 9 ;
10 [label="oldpeak <= 3.122\nentropy = 0.619\nsamples = 26\nvalue = [22, 4, 0, 0, 0]", fillcolor="#e58139d1"] ;
8 -> 10 ;
11 [label="chol <= 274.572\nentropy = 0.529\nsamples = 25\nvalue = [22, 3, 0, 0, 0]", fillcolor="#e58139dc"] ;
10 -> 11 ;
12 [label="entropy = 0.0\nsamples = 15\nvalue = [15, 0, 0, 0, 0]", fillcolor="#e58139ff"] ;
11 -> 12 ;
13 [label="age <= 57.396\nentropy = 0.881\nsamples = 10\nvalue = [7, 3, 0, 0, 0]", fillcolor="#e5813992"] ;
11 -> 13 ;
14 [label="entropy = 0.0\nsamples = 4\nvalue = [4, 0, 0, 0, 0]", fillcolor="#e58139ff"] ;
13 -> 14 ;
15 [label="chol <= 338.307\nentropy = 1.0\nsamples = 6\nvalue = [3, 3, 0, 0, 0]", fillcolor="#e5813900"] ;
13 -> 15 ;
16 [label="oldpeak <= 0.018\nentropy = 0.811\nsamples = 4\nvalue = [1, 3, 0, 0, 0]", fillcolor="#7be539aa"] ;
15 -> 16 ;
17 [label="entropy = 0.0\nsamples = 3\nvalue = [0, 3, 0, 0, 0]", fillcolor="#7be539ff"] ;
16 -> 17 ;
18 [label="entropy = 0.0\nsamples = 1\nvalue = [1, 0, 0, 0, 0]", fillcolor="#e58139ff"] ;
16 -> 18 ;
19 [label="entropy = 0.0\nsamples = 2\nvalue = [2, 0, 0, 0, 0]", fillcolor="#e58139ff"] ;
15 -> 19 ;
20 [label="entropy = 0.0\nsamples = 1\nvalue = [0, 1, 0, 0, 0]", fillcolor="#7be539ff"] ;
10 -> 20 ;
21 [label="sex <= 0.412\nentropy = 1.236\nsamples = 20\nvalue = [13, 5, 2, 0, 0]", fillcolor="#e5813988"] ;
3 -> 21 ;
22 [label="cp <= 2.524\nentropy = 0.469\nsamples = 10\nvalue = [9, 1, 0, 0, 0]", fillcolor="#e58139e3"] ;
21 -> 22 ;
23 [label="trestbps <= 127.427\nentropy = 1.0\nsamples = 2\nvalue = [1, 1, 0, 0, 0]", fillcolor="#e5813900"] ;
22 -> 23 ;
24 [label="entropy = 0.0\nsamples = 1\nvalue = [1, 0, 0, 0, 0]", fillcolor="#e58139ff"] ;
23 -> 24 ;
25 [label="entropy = 0.0\nsamples = 1\nvalue = [0, 1, 0, 0, 0]", fillcolor="#7be539ff"] ;
23 -> 25 ;
26 [label="entropy = 0.0\nsamples = 8\nvalue = [8, 0, 0, 0, 0]", fillcolor="#e58139ff"] ;
22 -> 26 ;
27 [label="thalach <= 159.798\nentropy = 1.522\nsamples = 10\nvalue = [4, 4, 2, 0, 0]", fillcolor="#e5813900"] ;
21 -> 27 ;
28 [label="cp <= 3.635\nentropy = 0.971\nsamples = 5\nvalue = [3, 0, 2, 0, 0]", fillcolor="#e5813955"] ;
27 -> 28 ;
29 [label="thal <= 3.227\nentropy = 0.811\nsamples = 4\nvalue = [3, 0, 1, 0, 0]", fillcolor="#e58139aa"] ;
28 -> 29 ;
30 [label="entropy = 0.0\nsamples = 3\nvalue = [3, 0, 0, 0, 0]", fillcolor="#e58139ff"] ;
29 -> 30 ;
31 [label="entropy = 0.0\nsamples = 1\nvalue = [0, 0, 1, 0, 0]", fillcolor="#39e5c5ff"] ;
29 -> 31 ;
32 [label="entropy = 0.0\nsamples = 1\nvalue = [0, 0, 1, 0, 0]", fillcolor="#39e5c5ff"] ;
28 -> 32 ;
33 [label="restecg <= 1.127\nentropy = 0.722\nsamples = 5\nvalue = [1, 4, 0, 0, 0]", fillcolor="#7be539bf"] ;
27 -> 33 ;
34 [label="chol <= 291.646\nentropy = 1.0\nsamples = 2\nvalue = [1, 1, 0, 0, 0]", fillcolor="#e5813900"] ;
33 -> 34 ;
35 [label="entropy = 0.0\nsamples = 1\nvalue = [0, 1, 0, 0, 0]", fillcolor="#7be539ff"] ;
34 -> 35 ;
36 [label="entropy = 0.0\nsamples = 1\nvalue = [1, 0, 0, 0, 0]", fillcolor="#e58139ff"] ;
34 -> 36 ;
37 [label="entropy = 0.0\nsamples = 3\nvalue = [0, 3, 0, 0, 0]", fillcolor="#7be539ff"] ;
33 -> 37 ;
38 [label="slope <= 1.565\nentropy = 2.186\nsamples = 16\nvalue = [6, 3, 2, 3, 2]", fillcolor="#e581393b"] ;
2 -> 38 ;
39 [label="restecg <= 0.139\nentropy = 1.224\nsamples = 9\nvalue = [6, 2, 0, 1, 0]", fillcolor="#e5813992"] ;
38 -> 39 ;
40 [label="entropy = 0.0\nsamples = 4\nvalue = [4, 0, 0, 0, 0]", fillcolor="#e58139ff"] ;
39 -> 40 ;
41 [label="thalach <= 159.538\nentropy = 1.522\nsamples = 5\nvalue = [2, 2, 0, 1, 0]", fillcolor="#e5813900"] ;
39 -> 41 ;
42 [label="trestbps <= 131.057\nentropy = 0.918\nsamples = 3\nvalue = [0, 2, 0, 1, 0]", fillcolor="#7be5397f"] ;
41 -> 42 ;
43 [label="entropy = 0.0\nsamples = 2\nvalue = [0, 2, 0, 0, 0]", fillcolor="#7be539ff"] ;
42 -> 43 ;
44 [label="entropy = 0.0\nsamples = 1\nvalue = [0, 0, 0, 1, 0]", fillcolor="#3c39e5ff"] ;
42 -> 44 ;
45 [label="entropy = 0.0\nsamples = 2\nvalue = [2, 0, 0, 0, 0]", fillcolor="#e58139ff"] ;
41 -> 45 ;
46 [label="restecg <= 1.785\nentropy = 1.95\nsamples = 7\nvalue = [0, 1, 2, 2, 2]", fillcolor="#39e5c500"] ;
38 -> 46 ;
47 [label="thal <= 5.416\nentropy = 0.918\nsamples = 3\nvalue = [0, 0, 2, 0, 1]", fillcolor="#39e5c57f"] ;
46 -> 47 ;
48 [label="entropy = 0.0\nsamples = 2\nvalue = [0, 0, 2, 0, 0]", fillcolor="#39e5c5ff"] ;
47 -> 48 ;
49 [label="entropy = 0.0\nsamples = 1\nvalue = [0, 0, 0, 0, 1]", fillcolor="#e539c0ff"] ;
47 -> 49 ;
50 [label="ca <= 2.176\nentropy = 1.5\nsamples = 4\nvalue = [0, 1, 0, 2, 1]", fillcolor="#3c39e555"] ;
46 -> 50 ;
51 [label="oldpeak <= 1.87\nentropy = 0.918\nsamples = 3\nvalue = [0, 0, 0, 2, 1]", fillcolor="#3c39e57f"] ;
50 -> 51 ;
52 [label="entropy = 0.0\nsamples = 1\nvalue = [0, 0, 0, 1, 0]", fillcolor="#3c39e5ff"] ;
51 -> 52 ;
53 [label="oldpeak <= 2.361\nentropy = 1.0\nsamples = 2\nvalue = [0, 0, 0, 1, 1]", fillcolor="#3c39e500"] ;
51 -> 53 ;
54 [label="entropy = 0.0\nsamples = 1\nvalue = [0, 0, 0, 0, 1]", fillcolor="#e539c0ff"] ;
53 -> 54 ;
55 [label="entropy = 0.0\nsamples = 1\nvalue = [0, 0, 0, 1, 0]", fillcolor="#3c39e5ff"] ;
53 -> 55 ;
56 [label="entropy = 0.0\nsamples = 1\nvalue = [0, 1, 0, 0, 0]", fillcolor="#7be539ff"] ;
50 -> 56 ;
57 [label="cp <= 3.767\nentropy = 2.085\nsamples = 32\nvalue = [13, 6, 7, 4, 2]", fillcolor="#e581393d"] ;
1 -> 57 ;
58 [label="fbs <= 0.701\nentropy = 0.544\nsamples = 8\nvalue = [7, 0, 1, 0, 0]", fillcolor="#e58139db"] ;
57 -> 58 ;
59 [label="entropy = 0.0\nsamples = 7\nvalue = [7, 0, 0, 0, 0]", fillcolor="#e58139ff"] ;
58 -> 59 ;
60 [label="entropy = 0.0\nsamples = 1\nvalue = [0, 0, 1, 0, 0]", fillcolor="#39e5c5ff"] ;
58 -> 60 ;
61 [label="thalach <= 130.982\nentropy = 2.23\nsamples = 24\nvalue = [6, 6, 6, 4, 2]", fillcolor="#e5813900"] ;
57 -> 61 ;
62 [label="thal <= 3.434\nentropy = 2.118\nsamples = 11\nvalue = [1, 3, 2, 4, 1]", fillcolor="#3c39e520"] ;
61 -> 62 ;
63 [label="ca <= 2.992\nentropy = 1.664\nsamples = 7\nvalue = [0, 1, 1, 4, 1]", fillcolor="#3c39e57f"] ;
62 -> 63 ;
64 [label="thalach <= 121.072\nentropy = 1.252\nsamples = 6\nvalue = [0, 1, 0, 4, 1]", fillcolor="#3c39e599"] ;
63 -> 64 ;
65 [label="oldpeak <= 1.926\nentropy = 0.811\nsamples = 4\nvalue = [0, 1, 0, 3, 0]", fillcolor="#3c39e5aa"] ;
64 -> 65 ;
66 [label="thalach <= 110.738\nentropy = 1.0\nsamples = 2\nvalue = [0, 1, 0, 1, 0]", fillcolor="#7be53900"] ;
65 -> 66 ;
67 [label="entropy = 0.0\nsamples = 1\nvalue = [0, 0, 0, 1, 0]", fillcolor="#3c39e5ff"] ;
66 -> 67 ;
68 [label="entropy = 0.0\nsamples = 1\nvalue = [0, 1, 0, 0, 0]", fillcolor="#7be539ff"] ;
66 -> 68 ;
69 [label="entropy = 0.0\nsamples = 2\nvalue = [0, 0, 0, 2, 0]", fillcolor="#3c39e5ff"] ;
65 -> 69 ;
70 [label="oldpeak <= 1.346\nentropy = 1.0\nsamples = 2\nvalue = [0, 0, 0, 1, 1]", fillcolor="#3c39e500"] ;
64 -> 70 ;
71 [label="entropy = 0.0\nsamples = 1\nvalue = [0, 0, 0, 1, 0]", fillcolor="#3c39e5ff"] ;
70 -> 71 ;
72 [label="entropy = 0.0\nsamples = 1\nvalue = [0, 0, 0, 0, 1]", fillcolor="#e539c0ff"] ;
70 -> 72 ;
73 [label="entropy = 0.0\nsamples = 1\nvalue = [0, 0, 1, 0, 0]", fillcolor="#39e5c5ff"] ;
63 -> 73 ;
74 [label="restecg <= 0.706\nentropy = 1.5\nsamples = 4\nvalue = [1, 2, 1, 0, 0]", fillcolor="#7be53955"] ;
62 -> 74 ;
75 [label="chol <= 201.042\nentropy = 1.0\nsamples = 2\nvalue = [1, 0, 1, 0, 0]", fillcolor="#e5813900"] ;
74 -> 75 ;
76 [label="entropy = 0.0\nsamples = 1\nvalue = [1, 0, 0, 0, 0]", fillcolor="#e58139ff"] ;
75 -> 76 ;
77 [label="entropy = 0.0\nsamples = 1\nvalue = [0, 0, 1, 0, 0]", fillcolor="#39e5c5ff"] ;
75 -> 77 ;
78 [label="entropy = 0.0\nsamples = 2\nvalue = [0, 2, 0, 0, 0]", fillcolor="#7be539ff"] ;
74 -> 78 ;
79 [label="chol <= 270.943\nentropy = 1.826\nsamples = 13\nvalue = [5, 3, 4, 0, 1]", fillcolor="#e581391c"] ;
61 -> 79 ;
80 [label="chol <= 218.604\nentropy = 1.571\nsamples = 10\nvalue = [3, 3, 4, 0, 0]", fillcolor="#39e5c524"] ;
79 -> 80 ;
81 [label="chol <= 204.439\nentropy = 0.811\nsamples = 4\nvalue = [1, 0, 3, 0, 0]", fillcolor="#39e5c5aa"] ;
80 -> 81 ;
82 [label="entropy = 0.0\nsamples = 2\nvalue = [0, 0, 2, 0, 0]", fillcolor="#39e5c5ff"] ;
81 -> 82 ;
83 [label="chol <= 209.543\nentropy = 1.0\nsamples = 2\nvalue = [1, 0, 1, 0, 0]", fillcolor="#e5813900"] ;
81 -> 83 ;
84 [label="entropy = 0.0\nsamples = 1\nvalue = [1, 0, 0, 0, 0]", fillcolor="#e58139ff"] ;
83 -> 84 ;
85 [label="entropy = 0.0\nsamples = 1\nvalue = [0, 0, 1, 0, 0]", fillcolor="#39e5c5ff"] ;
83 -> 85 ;
86 [label="oldpeak <= 2.279\nentropy = 1.459\nsamples = 6\nvalue = [2, 3, 1, 0, 0]", fillcolor="#7be53940"] ;
80 -> 86 ;
87 [label="restecg <= 1.923\nentropy = 0.971\nsamples = 5\nvalue = [2, 3, 0, 0, 0]", fillcolor="#7be53955"] ;
86 -> 87 ;
88 [label="entropy = 0.0\nsamples = 2\nvalue = [0, 2, 0, 0, 0]", fillcolor="#7be539ff"] ;
87 -> 88 ;
89 [label="oldpeak <= 1.049\nentropy = 0.918\nsamples = 3\nvalue = [2, 1, 0, 0, 0]", fillcolor="#e581397f"] ;
87 -> 89 ;
90 [label="entropy = 0.0\nsamples = 2\nvalue = [2, 0, 0, 0, 0]", fillcolor="#e58139ff"] ;
89 -> 90 ;
91 [label="entropy = 0.0\nsamples = 1\nvalue = [0, 1, 0, 0, 0]", fillcolor="#7be539ff"] ;
89 -> 91 ;
92 [label="entropy = 0.0\nsamples = 1\nvalue = [0, 0, 1, 0, 0]", fillcolor="#39e5c5ff"] ;
86 -> 92 ;
93 [label="ca <= 2.193\nentropy = 0.918\nsamples = 3\nvalue = [2, 0, 0, 0, 1]", fillcolor="#e581397f"] ;
79 -> 93 ;
94 [label="entropy = 0.0\nsamples = 2\nvalue = [2, 0, 0, 0, 0]", fillcolor="#e58139ff"] ;
93 -> 94 ;
95 [label="entropy = 0.0\nsamples = 1\nvalue = [0, 0, 0, 0, 1]", fillcolor="#e539c0ff"] ;
93 -> 95 ;
96 [label="ca <= 1.3\nentropy = 2.234\nsamples = 91\nvalue = [23, 21, 19, 21, 7]", fillcolor="#e5813907"] ;
0 -> 96 [labeldistance=2.5, labelangle=-45, headlabel="False"] ;
97 [label="cp <= 3.691\nentropy = 2.112\nsamples = 68\nvalue = [21, 21, 12, 11, 3]", fillcolor="#e5813900"] ;
96 -> 97 ;
98 [label="ca <= 0.517\nentropy = 1.609\nsamples = 26\nvalue = [16, 5, 1, 3, 1]", fillcolor="#e5813986"] ;
97 -> 98 ;
99 [label="exang <= 0.884\nentropy = 0.944\nsamples = 18\nvalue = [14, 3, 0, 1, 0]", fillcolor="#e58139bb"] ;
98 -> 99 ;
100 [label="chol <= 251.826\nentropy = 0.544\nsamples = 16\nvalue = [14, 2, 0, 0, 0]", fillcolor="#e58139db"] ;
99 -> 100 ;
101 [label="entropy = 0.0\nsamples = 7\nvalue = [7, 0, 0, 0, 0]", fillcolor="#e58139ff"] ;
100 -> 101 ;
102 [label="cp <= 2.673\nentropy = 0.764\nsamples = 9\nvalue = [7, 2, 0, 0, 0]", fillcolor="#e58139b6"] ;
100 -> 102 ;
103 [label="oldpeak <= 0.783\nentropy = 0.918\nsamples = 6\nvalue = [4, 2, 0, 0, 0]", fillcolor="#e581397f"] ;
102 -> 103 ;
104 [label="oldpeak <= 0.089\nentropy = 1.0\nsamples = 4\nvalue = [2, 2, 0, 0, 0]", fillcolor="#e5813900"] ;
103 -> 104 ;
105 [label="entropy = 0.0\nsamples = 2\nvalue = [2, 0, 0, 0, 0]", fillcolor="#e58139ff"] ;
104 -> 105 ;
106 [label="entropy = 0.0\nsamples = 2\nvalue = [0, 2, 0, 0, 0]", fillcolor="#7be539ff"] ;
104 -> 106 ;
107 [label="entropy = 0.0\nsamples = 2\nvalue = [2, 0, 0, 0, 0]", fillcolor="#e58139ff"] ;
103 -> 107 ;
108 [label="entropy = 0.0\nsamples = 3\nvalue = [3, 0, 0, 0, 0]", fillcolor="#e58139ff"] ;
102 -> 108 ;
109 [label="oldpeak <= 1.714\nentropy = 1.0\nsamples = 2\nvalue = [0, 1, 0, 1, 0]", fillcolor="#7be53900"] ;
99 -> 109 ;
110 [label="entropy = 0.0\nsamples = 1\nvalue = [0, 0, 0, 1, 0]", fillcolor="#3c39e5ff"] ;
109 -> 110 ;
111 [label="entropy = 0.0\nsamples = 1\nvalue = [0, 1, 0, 0, 0]", fillcolor="#7be539ff"] ;
109 -> 111 ;
112 [label="oldpeak <= 1.13\nentropy = 2.25\nsamples = 8\nvalue = [2, 2, 1, 2, 1]", fillcolor="#e5813900"] ;
98 -> 112 ;
113 [label="age <= 64.205\nentropy = 1.0\nsamples = 4\nvalue = [2, 2, 0, 0, 0]", fillcolor="#e5813900"] ;
112 -> 113 ;
114 [label="trestbps <= 102.489\nentropy = 0.918\nsamples = 3\nvalue = [1, 2, 0, 0, 0]", fillcolor="#7be5397f"] ;
113 -> 114 ;
115 [label="entropy = 0.0\nsamples = 1\nvalue = [1, 0, 0, 0, 0]", fillcolor="#e58139ff"] ;
114 -> 115 ;
116 [label="entropy = 0.0\nsamples = 2\nvalue = [0, 2, 0, 0, 0]", fillcolor="#7be539ff"] ;
114 -> 116 ;
117 [label="entropy = 0.0\nsamples = 1\nvalue = [1, 0, 0, 0, 0]", fillcolor="#e58139ff"] ;
113 -> 117 ;
118 [label="chol <= 263.353\nentropy = 1.5\nsamples = 4\nvalue = [0, 0, 1, 2, 1]", fillcolor="#3c39e555"] ;
112 -> 118 ;
119 [label="chol <= 242.82\nentropy = 1.0\nsamples = 2\nvalue = [0, 0, 1, 0, 1]", fillcolor="#39e5c500"] ;
118 -> 119 ;
120 [label="entropy = 0.0\nsamples = 1\nvalue = [0, 0, 0, 0, 1]", fillcolor="#e539c0ff"] ;
119 -> 120 ;
121 [label="entropy = 0.0\nsamples = 1\nvalue = [0, 0, 1, 0, 0]", fillcolor="#39e5c5ff"] ;
119 -> 121 ;
122 [label="entropy = 0.0\nsamples = 2\nvalue = [0, 0, 0, 2, 0]", fillcolor="#3c39e5ff"] ;
118 -> 122 ;
123 [label="oldpeak <= 0.081\nentropy = 2.067\nsamples = 42\nvalue = [5, 16, 11, 8, 2]", fillcolor="#7be53929"] ;
97 -> 123 ;
124 [label="age <= 42.148\nentropy = 1.53\nsamples = 9\nvalue = [3, 4, 2, 0, 0]", fillcolor="#7be5392a"] ;
123 -> 124 ;
125 [label="entropy = 0.0\nsamples = 3\nvalue = [0, 3, 0, 0, 0]", fillcolor="#7be539ff"] ;
124 -> 125 ;
126 [label="ca <= 0.038\nentropy = 1.459\nsamples = 6\nvalue = [3, 1, 2, 0, 0]", fillcolor="#e5813940"] ;
124 -> 126 ;
127 [label="entropy = 0.0\nsamples = 3\nvalue = [3, 0, 0, 0, 0]", fillcolor="#e58139ff"] ;
126 -> 127 ;
128 [label="trestbps <= 132.457\nentropy = 0.918\nsamples = 3\nvalue = [0, 1, 2, 0, 0]", fillcolor="#39e5c57f"] ;
126 -> 128 ;
129 [label="entropy = 0.0\nsamples = 1\nvalue = [0, 1, 0, 0, 0]", fillcolor="#7be539ff"] ;
128 -> 129 ;
130 [label="entropy = 0.0\nsamples = 2\nvalue = [0, 0, 2, 0, 0]", fillcolor="#39e5c5ff"] ;
128 -> 130 ;
131 [label="age <= 57.291\nentropy = 2.028\nsamples = 33\nvalue = [2, 12, 9, 8, 2]", fillcolor="#7be53920"] ;
123 -> 131 ;
132 [label="trestbps <= 149.165\nentropy = 1.857\nsamples = 20\nvalue = [0, 7, 4, 7, 2]", fillcolor="#7be53900"] ;
131 -> 132 ;
133 [label="fbs <= 0.136\nentropy = 1.549\nsamples = 17\nvalue = [0, 6, 4, 7, 0]", fillcolor="#3c39e517"] ;
132 -> 133 ;
134 [label="trestbps <= 111.244\nentropy = 1.42\nsamples = 13\nvalue = [0, 4, 2, 7, 0]", fillcolor="#3c39e555"] ;
133 -> 134 ;
135 [label="entropy = 0.0\nsamples = 2\nvalue = [0, 0, 0, 2, 0]", fillcolor="#3c39e5ff"] ;
134 -> 135 ;
136 [label="exang <= 0.79\nentropy = 1.495\nsamples = 11\nvalue = [0, 4, 2, 5, 0]", fillcolor="#3c39e524"] ;
134 -> 136 ;
137 [label="oldpeak <= 1.228\nentropy = 1.0\nsamples = 2\nvalue = [0, 0, 1, 1, 0]", fillcolor="#39e5c500"] ;
136 -> 137 ;
138 [label="entropy = 0.0\nsamples = 1\nvalue = [0, 0, 0, 1, 0]", fillcolor="#3c39e5ff"] ;
137 -> 138 ;
139 [label="entropy = 0.0\nsamples = 1\nvalue = [0, 0, 1, 0, 0]", fillcolor="#39e5c5ff"] ;
137 -> 139 ;
140 [label="ca <= 0.915\nentropy = 1.392\nsamples = 9\nvalue = [0, 4, 1, 4, 0]", fillcolor="#7be53900"] ;
136 -> 140 ;
141 [label="restecg <= 0.134\nentropy = 1.371\nsamples = 5\nvalue = [0, 3, 1, 1, 0]", fillcolor="#7be5397f"] ;
140 -> 141 ;
142 [label="trestbps <= 130.9\nentropy = 0.811\nsamples = 4\nvalue = [0, 3, 1, 0, 0]", fillcolor="#7be539aa"] ;
141 -> 142 ;
143 [label="sex <= 0.317\nentropy = 1.0\nsamples = 2\nvalue = [0, 1, 1, 0, 0]", fillcolor="#7be53900"] ;
142 -> 143 ;
144 [label="entropy = 0.0\nsamples = 1\nvalue = [0, 0, 1, 0, 0]", fillcolor="#39e5c5ff"] ;
143 -> 144 ;
145 [label="entropy = 0.0\nsamples = 1\nvalue = [0, 1, 0, 0, 0]", fillcolor="#7be539ff"] ;
143 -> 145 ;
146 [label="entropy = 0.0\nsamples = 2\nvalue = [0, 2, 0, 0, 0]", fillcolor="#7be539ff"] ;
142 -> 146 ;
147 [label="entropy = 0.0\nsamples = 1\nvalue = [0, 0, 0, 1, 0]", fillcolor="#3c39e5ff"] ;
141 -> 147 ;
148 [label="oldpeak <= 2.149\nentropy = 0.811\nsamples = 4\nvalue = [0, 1, 0, 3, 0]", fillcolor="#3c39e5aa"] ;
140 -> 148 ;
149 [label="entropy = 0.0\nsamples = 3\nvalue = [0, 0, 0, 3, 0]", fillcolor="#3c39e5ff"] ;
148 -> 149 ;
150 [label="entropy = 0.0\nsamples = 1\nvalue = [0, 1, 0, 0, 0]", fillcolor="#7be539ff"] ;
148 -> 150 ;
151 [label="thalach <= 138.874\nentropy = 1.0\nsamples = 4\nvalue = [0, 2, 2, 0, 0]", fillcolor="#7be53900"] ;
133 -> 151 ;
152 [label="entropy = 0.0\nsamples = 2\nvalue = [0, 0, 2, 0, 0]", fillcolor="#39e5c5ff"] ;
151 -> 152 ;
153 [label="entropy = 0.0\nsamples = 2\nvalue = [0, 2, 0, 0, 0]", fillcolor="#7be539ff"] ;
151 -> 153 ;
154 [label="thalach <= 94.031\nentropy = 0.918\nsamples = 3\nvalue = [0, 1, 0, 0, 2]", fillcolor="#e539c07f"] ;
132 -> 154 ;
155 [label="entropy = 0.0\nsamples = 1\nvalue = [0, 1, 0, 0, 0]", fillcolor="#7be539ff"] ;
154 -> 155 ;
156 [label="entropy = 0.0\nsamples = 2\nvalue = [0, 0, 0, 0, 2]", fillcolor="#e539c0ff"] ;
154 -> 156 ;
157 [label="thalach <= 119.074\nentropy = 1.76\nsamples = 13\nvalue = [2, 5, 5, 1, 0]", fillcolor="#7be53900"] ;
131 -> 157 ;
158 [label="ca <= 0.471\nentropy = 1.585\nsamples = 3\nvalue = [1, 1, 0, 1, 0]", fillcolor="#e5813900"] ;
157 -> 158 ;
159 [label="entropy = 0.0\nsamples = 1\nvalue = [0, 0, 0, 1, 0]", fillcolor="#3c39e5ff"] ;
158 -> 159 ;
160 [label="trestbps <= 133.022\nentropy = 1.0\nsamples = 2\nvalue = [1, 1, 0, 0, 0]", fillcolor="#e5813900"] ;
158 -> 160 ;
161 [label="entropy = 0.0\nsamples = 1\nvalue = [1, 0, 0, 0, 0]", fillcolor="#e58139ff"] ;
160 -> 161 ;
162 [label="entropy = 0.0\nsamples = 1\nvalue = [0, 1, 0, 0, 0]", fillcolor="#7be539ff"] ;
160 -> 162 ;
163 [label="exang <= 0.083\nentropy = 1.361\nsamples = 10\nvalue = [1, 4, 5, 0, 0]", fillcolor="#39e5c52a"] ;
157 -> 163 ;
164 [label="ca <= 0.157\nentropy = 0.811\nsamples = 4\nvalue = [1, 0, 3, 0, 0]", fillcolor="#39e5c5aa"] ;
163 -> 164 ;
165 [label="entropy = 0.0\nsamples = 1\nvalue = [1, 0, 0, 0, 0]", fillcolor="#e58139ff"] ;
164 -> 165 ;
166 [label="entropy = 0.0\nsamples = 3\nvalue = [0, 0, 3, 0, 0]", fillcolor="#39e5c5ff"] ;
164 -> 166 ;
167 [label="oldpeak <= 3.27\nentropy = 0.918\nsamples = 6\nvalue = [0, 4, 2, 0, 0]", fillcolor="#7be5397f"] ;
163 -> 167 ;
168 [label="entropy = 0.0\nsamples = 4\nvalue = [0, 4, 0, 0, 0]", fillcolor="#7be539ff"] ;
167 -> 168 ;
169 [label="entropy = 0.0\nsamples = 2\nvalue = [0, 0, 2, 0, 0]", fillcolor="#39e5c5ff"] ;
167 -> 169 ;
170 [label="ca <= 2.415\nentropy = 1.79\nsamples = 23\nvalue = [2, 0, 7, 10, 4]", fillcolor="#3c39e530"] ;
96 -> 170 ;
171 [label="sex <= 0.747\nentropy = 1.314\nsamples = 13\nvalue = [0, 0, 6, 6, 1]", fillcolor="#39e5c500"] ;
170 -> 171 ;
172 [label="chol <= 357.011\nentropy = 0.811\nsamples = 4\nvalue = [0, 0, 1, 3, 0]", fillcolor="#3c39e5aa"] ;
171 -> 172 ;
173 [label="entropy = 0.0\nsamples = 3\nvalue = [0, 0, 0, 3, 0]", fillcolor="#3c39e5ff"] ;
172 -> 173 ;
174 [label="entropy = 0.0\nsamples = 1\nvalue = [0, 0, 1, 0, 0]", fillcolor="#39e5c5ff"] ;
172 -> 174 ;
175 [label="trestbps <= 133.311\nentropy = 1.352\nsamples = 9\nvalue = [0, 0, 5, 3, 1]", fillcolor="#39e5c555"] ;
171 -> 175 ;
176 [label="fbs <= 0.812\nentropy = 1.371\nsamples = 5\nvalue = [0, 0, 1, 3, 1]", fillcolor="#3c39e57f"] ;
175 -> 176 ;
177 [label="oldpeak <= 2.049\nentropy = 0.811\nsamples = 4\nvalue = [0, 0, 0, 3, 1]", fillcolor="#3c39e5aa"] ;
176 -> 177 ;
178 [label="entropy = 0.0\nsamples = 2\nvalue = [0, 0, 0, 2, 0]", fillcolor="#3c39e5ff"] ;
177 -> 178 ;
179 [label="trestbps <= 130.446\nentropy = 1.0\nsamples = 2\nvalue = [0, 0, 0, 1, 1]", fillcolor="#3c39e500"] ;
177 -> 179 ;
180 [label="entropy = 0.0\nsamples = 1\nvalue = [0, 0, 0, 0, 1]", fillcolor="#e539c0ff"] ;
179 -> 180 ;
181 [label="entropy = 0.0\nsamples = 1\nvalue = [0, 0, 0, 1, 0]", fillcolor="#3c39e5ff"] ;
179 -> 181 ;
182 [label="entropy = 0.0\nsamples = 1\nvalue = [0, 0, 1, 0, 0]", fillcolor="#39e5c5ff"] ;
176 -> 182 ;
183 [label="entropy = 0.0\nsamples = 4\nvalue = [0, 0, 4, 0, 0]", fillcolor="#39e5c5ff"] ;
175 -> 183 ;
184 [label="exang <= 0.665\nentropy = 1.846\nsamples = 10\nvalue = [2, 0, 1, 4, 3]", fillcolor="#3c39e524"] ;
170 -> 184 ;
185 [label="restecg <= 1.007\nentropy = 1.842\nsamples = 7\nvalue = [2, 0, 1, 1, 3]", fillcolor="#e539c033"] ;
184 -> 185 ;
186 [label="entropy = 0.0\nsamples = 2\nvalue = [2, 0, 0, 0, 0]", fillcolor="#e58139ff"] ;
185 -> 186 ;
187 [label="oldpeak <= 4.46\nentropy = 1.371\nsamples = 5\nvalue = [0, 0, 1, 1, 3]", fillcolor="#e539c07f"] ;
185 -> 187 ;
188 [label="cp <= 3.317\nentropy = 0.811\nsamples = 4\nvalue = [0, 0, 1, 0, 3]", fillcolor="#e539c0aa"] ;
187 -> 188 ;
189 [label="entropy = 0.0\nsamples = 1\nvalue = [0, 0, 1, 0, 0]", fillcolor="#39e5c5ff"] ;
188 -> 189 ;
190 [label="entropy = 0.0\nsamples = 3\nvalue = [0, 0, 0, 0, 3]", fillcolor="#e539c0ff"] ;
188 -> 190 ;
191 [label="entropy = 0.0\nsamples = 1\nvalue = [0, 0, 0, 1, 0]", fillcolor="#3c39e5ff"] ;
187 -> 191 ;
192 [label="entropy = 0.0\nsamples = 3\nvalue = [0, 0, 0, 3, 0]", fillcolor="#3c39e5ff"] ;
184 -> 192 ;
}